#include "weights.h"

const weight_t conv1_weight[4][1][3] = {
    {
        { -0.7269732952f, -0.1899851114f, -0.0957336053f }
    },
    {
        { 0.1111059040f, 3.8654785156f, -3.8186407089f }
    },
    {
        { -0.6653581858f, -0.2032746077f, -0.1669993848f }
    },
    {
        { 0.7387011051f, 1.0563403368f, -0.9311813116f }
    }
};
const weight_t conv1_bias[4] = { -0.3283224404, -5.0075e-06, 0.11995323, -0.4215168357 };

const weight_t conv2_weight[8][4][3] = {
    {
        { -0.3476059139f, 0.5752117038f, 0.0831116438f },
        { 0.5593405366f, 0.3347662985f, 0.3514110446f },
        { 0.4315491021f, 0.0841405690f, 0.5215059519f },
        { 0.7313423157f, 0.1397019923f, 0.5043048263f }
    },
    {
        { 0.2373295426f, -0.0534265488f, 0.5039471984f },
        { 0.4914377630f, -0.5651164055f, -0.5940309167f },
        { 0.7546399236f, 0.0396701060f, 0.3174338341f },
        { 0.5230124593f, 0.7701138258f, 0.8354120255f }
    },
    {
        { -0.9992957115f, -1.0654981136f, 0.5993031859f },
        { -1.6835870743f, 1.1302220821f, 0.2222821862f },
        { 0.9630692601f, 0.3526804745f, -1.0673652887f },
        { 1.3623698950f, -0.5645135641f, -1.5894932747f }
    },
    {
        { 0.6116900444f, -0.1175352484f, -0.7884888053f },
        { 0.2717788219f, -0.7124291658f, -0.8384463787f },
        { -0.4263669550f, -0.3755372763f, -0.5680556893f },
        { -0.3330256045f, -1.0753766298f, -0.3987309039f }
    },
    {
        { -0.3619675040f, 0.4443453252f, -0.1529024392f },
        { 0.4347079396f, -0.2020095587f, 0.0076036844f },
        { -0.6741425395f, 0.6102403402f, 0.3212975860f },
        { -0.7488588095f, 0.1367626041f, 0.1078841165f }
    },
    {
        { 2.4054329395f, -2.6160244942f, 0.8234016895f },
        { 1.2371864319f, -0.7857325077f, 0.3126265109f },
        { -2.7062005997f, 0.8976609707f, -1.3632557392f },
        { -2.9216086864f, 0.2237087190f, -0.7820259333f }
    },
    {
        { -0.1070083529f, 0.1965435892f, 0.1873587519f },
        { 0.6751778722f, -0.4342600405f, -0.2609440982f },
        { -0.2261124849f, 0.5275584459f, 0.2367634177f },
        { 0.0966736898f, -0.1918822378f, -0.2564108372f }
    },
    {
        { 0.5316260457f, -0.0869474709f, -0.4771133363f },
        { -0.1785527766f, -0.6144074798f, 0.0089824935f },
        { -0.0583715886f, 0.8192644715f, -0.8721048832f },
        { 0.4969012439f, 0.5538570881f, 0.0207718816f }
    }
};
const weight_t conv2_bias[8] = { -0.9337192774, -0.6196832657, 0.5154693127, 1.3227344751, 0.0647987723, 1.5503211021, -0.3083990812, -0.0182466581 };

const weight_t conv3_weight[16][8][3][3] = {
		{
				{
						{ 0.0380064584, 0.3002559245, -0.2357488871 },
						{ 0.2650445402, -0.2088740319, 0.4067970812 },
						{ -0.252751261, -0.0340386182, -0.2508059144 }
				},
				{
						{ -0.3240410686, 0.1499900967, -0.0742462352 },
						{ -0.1380118579, -0.3346606195, 0.1008308902 },
						{ -0.1826503128, 0.0879247189, -0.1385043263 }
				},
				{
						{ -0.2922234833, -0.0847511068, -0.297593087 }, { 0.1111657321, -0.2360511869, -0.2049748003 }, { 0.0348521136, -0.104922682, -0.1621376127 } }, { { 0.0319291763, 0.3378949761, 0.6629195809 }, { 0.3091315925, -0.20161663, 0.7150830626 }, { -0.0066772141, -0.2437674105, 0.7131521702 } }, { { -0.3695747256, -0.1933951378, -0.3399678469 }, { -0.5250336528, -0.3770574629, 0.0335586108 }, { 0.086366348, -0.379835397, 0.0438434072 } }, { { -0.0931801423, -0.2381450534, -0.0947626531 }, { -0.1622660607, 0.0361984223, -0.236175254 }, { -0.2493559122, -0.2663704157, -0.3338431716 } }, { { 0.0170832686, -0.0821932107, -0.2614759505 }, { 0.1658781767, -0.0768356025, -0.161161378 }, { 0.192122817, 0.1621060967, -0.0011793833 } }, { { -0.3148372769, -0.0670105964, 0.1115004569 }, { 0.1705853641, -0.0473023169, 0.244710952 }, { -0.3574044108, 0.0506479181, 0.4128616452 } } }, { { { 0.14275828, -0.3392304778, 0.0516485274 }, { 0.0054547684, -0.0934933126, -0.1323757321 }, { 0.4015831351, 0.3511123061, -0.1493434906 } }, { { -0.0719010904, 0.0881148651, 0.3973484933 }, { -0.5319325924, -0.1789452136, 0.3933093846 }, { -0.4353041947, -0.2840775847, -0.0588046387 } }, { { -0.1049401611, -0.3630388975, 0.0575501956 }, { -0.2682000995, -0.0717298388, -0.0042929593 }, { -0.0108022075, -0.7073174119, -0.1106015965 } }, { { 0.7666235566, 0.2836779356, 0.4675956666 }, { 0.4288701415, 0.1175982282, -0.2385689914 }, { 0.8117357492, 0.2774948776, 0.0173672047 } }, { { -0.3378999531, -0.4565711021, 0.0363710299 }, { 0.2635923326, -0.2996764481, -0.1447970718 }, { -0.3254586458, -0.4445549548, -0.1053807884 } }, { { 0.009807176, -0.3201438487, -0.4030721188 }, { -0.2306976318, -0.6756775975, 0.2211515456 }, { -0.5562423468, -0.7432953119, 0.4246851206 } }, { { -0.3755881786, -0.0198053364, 0.0858598351 }, { 0.0177934486, 0.8707980514, -0.1728059798 }, { 0.0550506301, -0.1119713485, 0.3453612328 } }, { { 0.1335605234, 0.2749980688, 0.0412563235 }, { -0.0131866597, -0.361179173, -0.2781513333 }, { -0.0714366883, -0.0434069596, -0.16573219 } } }, { { { 0.4564538002, -0.0363687091, 0.307674408 }, { -0.1405547261, -0.1284591109, 0.2658539116 }, { 0.1309955865, 0.2639427781, 0.3431657255 } }, { { -0.1902637929, -0.2502138019, 0.1151566654 }, { -0.5158625841, 0.0308521315, -0.0335103385 }, { -0.1946142167, -0.0126238158, -0.0800764263 } }, { { -0.1214221343, -0.0162339155, -0.4880029261 }, { 0.4114780426, -0.6704792976, -0.1682676971 }, { -0.0057996763, -0.4068700373, -0.4805939198 } }, { { 0.2315780818, 0.4138197005, 0.3073403835 }, { 0.7777073979, 0.1924451441, 0.8533553481 }, { -0.0586860292, 0.2048538923, 0.7711915374 } }, { { -0.5196291208, -0.2443229407, -0.2337972522 }, { -0.4151668847, 0.2196693122, -0.7404003739 }, { 0.178253904, -0.3695369065, -0.2632227838 } }, { { 0.1149348468, -0.3433392048, -0.5384047031 }, { 0.3174258769, -0.783017695, -0.2095051855 }, { -0.1093938798, -0.6145447493, -0.596855998 } }, { { -0.3955102265, -0.0359951556, -0.2868117094 }, { 0.2384935617, -0.1027397588, 0.651255846 }, { -0.108870171, -0.0907042846, 0.0698124021 } }, { { -0.462372601, 0.0159966424, 0.1458730251 }, { 0.1839461476, -0.1643180847, -0.2888047695 }, { -0.2032065839, 0.0513597429, -0.5068638325 } } }, { { { -0.1740055978, -0.6292372942, -0.2579644322 }, { 0.4760957956, -0.2818950713, 0.0310376864 }, { -0.4067641795, -0.7717379928, 0.4606304467 } }, { { -0.0133204916, -0.3943915069, 0.6291432381 }, { -0.2152623385, 0.9677541852, -0.1687934548 }, { 0.949755609, -0.2183584571, -0.3349827528 } }, { { 1.4135127068, 0.1565936059, 0.3663090467 }, { -0.3925892115, -0.0368994921, 0.1100193635 }, { 1.2185674906, 0.3818781674, 0.0477345176 } }, { { -1.1838340759, 0.0025247582, -0.8304366469 }, { -0.7139951587, -0.9005814791, -0.3715332448 }, { -0.9936938286, -0.200686723, -0.0963703096 } }, { { 1.1639693975, -0.156953752, 0.1235959157 }, { -0.3650558293, 0.5132041574, 0.6313865185 }, { 0.0569745339, 0.258856982, 0.1554257572 } }, { { 0.5871148109, 1.0701526403, 0.0170086641 }, { 0.2587623298, -0.3334461153, 0.5975696445 }, { 0.93842417, 1.0939377546, -0.0231603328 } }, { { 0.0391665548, 0.0239992253, -0.097188659 }, { -0.2338819653, -0.4850152731, -0.0955033079 }, { -0.4261702597, 0.2534956634, -0.2715311348 } }, { { 0.4885015786, 0.6487949491, 0.3142541051 }, { 0.4834670126, -0.4225055575, 0.0176501423 }, { 0.3545095623, 0.7812407613, 0.6285588741 } } }, { { { -0.351734817, -0.2912326157, 0.2554835677 }, { 0.1807281971, -0.3735015392, 0.0894851461 }, { 0.0084740091, 0.2399968952, -0.1939296126 } }, { { -0.2381645292, 0.0108257812, 0.3149980605 }, { -0.5030400157, -0.327621609, 0.5564603806 }, { -0.0140895322, 0.224766627, -0.1449698806 } }, { { -0.2450041622, -0.1620207876, -0.2169291973 }, { 0.1517078131, -0.5582882166, 0.0338243097 }, { 0.0241283495, -0.4385412633, -0.1445623934 } }, { { 0.3128844202, 0.3916676939, 0.2079779506 }, { 0.4991619885, 0.1438711137, 0.3704203665 }, { 0.6653534174, 0.4358595312, 0.5131372213 } }, { { 0.1833451092, -0.5178989172, -0.1810660064 }, { -0.3396692872, -0.280562371, -0.2172965854 }, { -0.3920149803, -0.3763081729, -0.0029964813 } }, { { 0.3151579499, -0.0614499263, -0.3839915097 }, { -0.1883238703, -0.7429679632, 0.1205630973 }, { -0.2795701921, -0.7177112103, -0.1800763309 } }, { { -0.0688841045, 0.3650495708, -0.1060434058 }, { 0.2032121718, 0.708471477, 0.2254163325 }, { -0.0682344362, -0.3303747475, 0.4172956645 } }, { { 0.2016697079, 0.1245891452, -0.2860280573 }, { -0.0349506624, -0.1802807748, -0.127516076 }, { -0.0202765875, 0.1853276193, -0.2623969316 } } }, { { { -0.1988284588, 0.0274279509, 0.1896444559 }, { -0.4558230042, -0.6795024276, 0.252319932 }, { -0.1625285894, 0.1160673499, 0.1152715087 } }, { { -0.3857116401, 0.1615615785, -0.3836205602 }, { -0.0596608892, 0.3731130064, 0.3163046539 }, { 0.9704479575, 0.0268476401, -0.0350248069 } }, { { 0.1509907544, 0.1595942676, 0.486002773 }, { 1.0467816591, 0.3439233005, -0.3200951815 }, { 0.3269349635, 0.1542363167, 0.0973296538 } }, { { 0.058183182, -0.2731471062, -0.6708491445 }, { -1.0650043488, -0.5458689332, -0.4952069521 }, { -0.785592258, -0.5172534585, 0.3237293661 } }, { { -0.1021110788, 0.4172831774, 0.092539072 }, { -0.1511469036, 0.4365454614, 0.0620106161 }, { -0.0020193262, -0.116152674, 0.4574882388 } }, { { 0.2370412797, 0.2116917968, 0.240041092 }, { 0.688988924, 1.3014327288, 0.6325692534 }, { 0.5944953561, -0.0234225281, -0.3150089681 } }, { { 0.5328087211, 0.2505719066, 0.2251176387 }, { 0.5086374283, -0.3441450596, -0.636687398 }, { -0.1977815777, -0.1959804446, -0.4975370169 } }, { { 0.3013063073, 0.9872390628, -0.6836960912 }, { 0.3062489033, 0.181803599, 0.6619757414 }, { 0.8776775599, -0.2037475705, 0.2469169945 } } }, { { { 0.3665660918, -0.5372009873, 0.348092407 }, { -0.2802436948, 0.3585045636, -0.2142032534 }, { 0.4409698248, 0.3419269919, -0.006900718 } }, { { -0.2830721736, 0.1249371991, 0.1965803206 }, { 0.0747990087, 0.2869378328, -0.0040120939 }, { -0.7111541033, -0.3180932701, -0.0833310038 } }, { { 0.2346168458, -0.2682420909, -0.3548793197 }, { 0.198063463, -0.441554606, -0.1461220384 }, { -0.3858607411, -0.5370952487, -0.4159379005 } }, { { 0.0285105836, 0.392488867, 0.6706748605 }, { 0.2629550695, 0.3684651554, 0.4228666425 }, { -0.1242469549, -0.2596567273, 0.6133742332 } }, { { -0.6868749857, -0.3073523939, -0.3883068264 }, { -0.2278541327, -0.0855492726, -0.4219827354 }, { 0.0053038965, 0.2796160281, -0.2163582891 } }, { { 0.2793271542, -0.5405944586, -0.412614435 }, { 0.2051842511, -0.5738708973, -0.2455710173 }, { 0.2363295108, -0.2189569175, -0.3583367467 } }, { { -0.4095910192, -0.1474231333, -0.2273735106 }, { -0.0813610256, -0.5643149614, 0.4533811808 }, { -0.388620913, -0.0411992148, 0.1910490543 } }, { { 0.1688447446, 0.1377877146, 0.0938847438 }, { -0.0603477061, 0.2388467491, -0.0256685633 }, { 0.0673533157, -0.2544679046, -0.2137824893 } } }, { { { 0.2687208652, -0.1376176178, 0.2379458696 }, { 0.1130874977, -0.2280437052, -0.2850966454 }, { 0.3230850697, -0.1795163304, -0.2730302513 } }, { { 0.2388038784, 0.1453388184, 0.042698957 }, { 0.2416381091, 0.3889926076, -0.2592999041 }, { -0.0745985433, -0.0185494088, 0.4522387981 } }, { { 0.0031167897, -0.0683322996, 0.3403962255 }, { 0.1821650118, 0.3794000745, -0.1921906918 }, { -0.083498247, 0.7773624063, 0.2069153637 } }, { { -0.0604270399, 0.0260691922, -0.8785719872 }, { -1.0132893324, -0.2014226317, -0.3955093324 }, { -0.4395495355, -0.2646440864, -0.3239921629 } }, { { 0.2270421833, -0.0942098647, -0.0876649842 }, { -0.2611281276, 0.6061019301, 0.7367784381 }, { -0.4604814947, 0.1557939649, -0.122950159 } }, { { 0.6608634591, 0.0398765914, 0.6048647165 }, { 0.5687420964, 0.4011932611, 0.2755922973 }, { 0.0866788998, 0.193965584, 0.5652876496 } }, { { 0.3003543913, -0.2584288418, 0.1047921702 }, { 0.0049299127, -0.0824805275, -0.1152342185 }, { 0.0379167646, -0.092475079, -0.143558681 } }, { { 0.0007465707, 0.1313615292, 0.1497059315 }, { -0.0451093614, 0.1251978278, 0.2947877049 }, { 0.382124126, -0.1866031587, 0.1417184919 } } }, { { { -0.4730640054, -0.9504429698, 0.0501169376 }, { 0.2704111636, -0.7906681299, -0.3263968527 }, { -0.0710061416, -0.6686433554, -0.0685157254 } }, { { 0.6364099383, 0.0768804401, 0.0872410089 }, { 0.0487740934, 0.5952466726, 0.1704336405 }, { -0.0463595912, 0.118793115, -0.0466528162 } }, { { 1.1461900473, 0.4725598097, 0.2468607277 }, { 0.1963260025, 0.1402185112, 0.3396815658 }, { 0.8082336187, 0.2836895585, 0.1836551428 } }, { { -1.0245341063, 0.1673676968, -0.5867211819 }, { -0.8071594238, -0.6565021276, -0.6686064005 }, { -1.045204401, -0.2427872866, -0.5824341178 } }, { { 0.3889786899, 0.9610866308, -0.0046072584 }, { 0.0313479044, -0.0408217013, 0.2916122973 }, { -0.1247773692, -0.231868729, 0.3654636145 } }, { { 1.2318530083, 1.0600329638, 0.425524801 }, { -0.3646891415, -0.0704267174, 0.3493711352 }, { 1.0235036612, 0.5541290641, 0.2958492935 } }, { { -0.0648740083, -0.03978917, -0.2503536046 }, { -0.3765117526, 0.2576597035, 0.3818709552 }, { 0.3226699829, -0.2493054569, 0.007116972 } }, { { 0.5722910762, 0.23472929, 0.4509115815 }, { 0.3860298395, 0.7002366781, -0.4579177201 }, { -0.3038277924, 0.114396289, 1.2894890308 } } }, { { { 0.4388387203, -0.4747112393, -0.2879210114 }, { -0.0078555755, -0.0667991489, 0.3104920387 }, { -0.0608432405, -0.8293715119, -0.1238426194 } }, { { 0.2371041775, 0.2419863343, 0.7291687727 }, { 0.0880629197, 0.3102368116, -0.1818281114 }, { 0.0306419432, 0.2914852798, -0.2064127773 } }, { { 0.0035233006, 0.5184016228, 0.0227799732 }, { -0.0329897217, -0.1888558269, -0.1417326182 }, { 0.4708639085, 0.7412800789, 0.1560310721 } }, { { -0.3051339388, -0.5916757584, -0.6619312167 }, { -0.8491995335, -0.1184170321, -0.5152316093 }, { -0.9426794648, -0.4695090353, -0.048399087 } }, { { -0.1847758442, 0.3038827181, 0.7467858791 }, { -0.0458297841, 0.3154442608, -0.3870984614 }, { -0.6259288788, -0.0706700757, 0.0433521941 } }, { { 0.4666440487, 0.1118495539, 0.8916329145 }, { 1.1850277185, 0.5430524945, 0.1465491056 }, { -0.1503397822, 0.272914052, 0.6676036119 } }, { { -0.1075186729, 0.0307338312, -0.2354459465 }, { 0.0209135059, -0.3465161622, -0.1904435903 }, { 0.6742540598, 0.1867304295, 0.3505073786 } }, { { 0.5416250229, 0.1902538687, -0.4089234471 }, { -0.3291036785, 0.6740249395, 0.6387186646 }, { 0.3497802913, -0.3177602291, 0.0442889594 } } }, { { { -0.2599364817, -1.1032027006, -0.1126279905 }, { 0.171010837, -0.2861673534, 0.1136467159 }, { 0.1074092314, -0.5419914722, -0.2174500376 } }, { { 0.7123611569, 0.2082315385, 0.4781334996 }, { 0.1144937202, 0.6486777663, 0.07327535 }, { -0.3401652575, 0.199833259, -0.1559448391 } }, { { 1.056145668, 0.475977689, 0.4234987497 }, { -0.1517221183, 0.1293355674, -0.156334728 }, { 0.7444943786, 0.5861677527, 0.2321979553 } }, { { -1.0463993549, -0.4270866811, -0.5905967951 }, { -0.1117753834, -0.5979901552, -1.0093115568 }, { -1.203923583, -0.0089001395, 0.0463393964 } }, { { -0.0487076938, 0.066046752, 0.8268600106 }, { 0.5132921934, 0.7298384309, 0.1261902452 }, { -0.5399196744, 0.0368773118, -0.012147245 } }, { { 0.3694033027, 0.629267633, 0.5544163585 }, { 0.6709190011, -0.0769143105, 0.382547915 }, { 0.8086932898, 0.9182187915, 0.0854026675 } }, { { -0.499117732, 0.2782519758, -0.4438883066 }, { 0.2401287258, -0.5886082053, -0.0691838413 }, { 0.1062283367, 0.0043393443, -0.2294276655 } }, { { 0.1014903188, 0.9824898839, -0.8154908419 }, { 0.3631521463, -0.4821018577, 0.8595602512 }, { 0.2943398654, 0.4449525476, 0.8492084742 } } }, { { { 0.2124330401, -0.3316000104, -0.2285285294 }, { -0.3546513617, -0.0589147843, 0.3306892216 }, { 0.2592151463, -0.6070283651, -0.2362255156 } }, { { -0.4929925203, 0.1041148528, 0.1793168932 }, { 0.2778831124, 0.7678619027, 0.3555357754 }, { 0.8158627748, -0.4418567121, -0.413233161 } }, { { 0.7587452531, 0.1583304852, 0.4208844602 }, { -0.0721232593, -0.2333771735, 0.1202275306 }, { 0.9682261348, 0.6790907383, -0.0308981836 } }, { { -0.5975237489, -0.5701924562, -0.4263423085 }, { -0.4021821916, -0.1306477934, -0.427341789 }, { -0.8783558011, -0.1475737244, -0.1954291761 } }, { { 0.678704679, 0.4959431291, 0.1918950677 }, { 0.0292190798, -0.367148757, 0.0241966601 }, { -0.1594123691, 0.6994124055, 0.5065543652 } }, { { 0.4399875998, 0.9215629697, 0.1271342635 }, { 0.3693363965, 0.0592190288, 0.3716052175 }, { 0.4834809601, 0.5069491267, -0.0625886694 } }, { { 0.1903373152, 0.1791852415, -0.0712149888 }, { -0.0352812931, -0.5925863385, -0.0871849582 }, { -0.7261530161, 0.2019602954, -0.2741178572 } }, { { 0.7758452296, 0.485765934, -0.6021242738 }, { 0.3894459009, -0.5539747477, 0.7476919293 }, { -0.1247602329, 0.5051245689, 0.4082303047 } } }, { { { 0.3443159163, -0.2328205556, -0.0327257216 }, { -0.1955767572, -0.1180334836, -0.0034898953 }, { -0.3115206063, 0.3044699132, -0.4801909626 } }, { { -0.047685232, -0.1711640507, 0.6169304848 }, { -0.0520186014, -0.1532513946, -0.3524880707 }, { 0.6688094139, 0.2741805017, 0.0508626178 } }, { { 0.417412132, 0.0503838398, -0.0163382459 }, { 0.3949976861, 0.553501904, -0.1451563686 }, { -0.3254590333, 0.7005106211, 0.2116911709 } }, { { -0.2639104724, -0.4284296334, -1.0271977186 }, { -0.8378444314, -0.4745797217, -0.0168878455 }, { -0.2420754582, -0.8706251979, -0.0829037428 } }, { { -0.0117692919, 0.4911417067, 0.0985435471 }, { -0.1852948815, -0.2944255173, 0.9464283586 }, { 0.0223457795, 0.4343573153, -0.440140456 } }, { { 0.4406331778, 0.1541921943, 0.1165386438 }, { 0.3124527931, 0.7025372982, 0.5228559375 }, { 0.4384386539, 0.4442649186, 0.7265877724 } }, { { 0.3467242122, 0.10773886, -0.3109117448 }, { -0.0728728175, -0.2479267716, 0.0199463125 }, { 0.2031316459, -0.1397469789, -0.0497815907 } }, { { 0.6885385513, 0.492793113, 0.5310543776 }, { -0.3993449807, 0.0028561712, 0.0337561443 }, { 0.6059929132, -0.0133149056, -0.2156481743 } } }, { { { 0.4751930833, 0.5400130153, -0.6077073812 }, { 0.2134540975, 0.3696272075, 0.1098429263 }, { 0.0608252138, -0.2276756912, 0.1404506862 } }, { { -0.5313622355, -0.1374999434, -0.0427169874 }, { -0.4422282875, -0.1538680196, 0.0595625155 }, { -0.0961033925, -0.3489307165, -0.0340826064 } }, { { -0.2950444221, -0.2009142637, -0.2758862078 }, { -0.2548616529, -0.0754005164, -0.3806014955 }, { -0.1482679099, -0.4415710568, -0.3006237745 } }, { { 0.1749832183, 0.6315497756, 0.9596354961 }, { 0.0154143702, -0.4331976175, 0.1708767712 }, { 0.6086851954, -0.0891540274, 0.9226545691 } }, { { -0.1502055228, -0.7747935057, -0.1529150754 }, { -0.394366771, -0.2460263073, -0.7969443798 }, { -0.2726609409, -0.0237787291, 0.2480463684 } }, { { -0.2078473717, -0.0438630097, -0.2734593153 }, { 0.0030471277, -0.246079281, -0.2221886963 }, { -0.2563464344, -0.0020052833, -0.4616933763 } }, { { 0.0033672699, -0.4759181142, -0.0452159569 }, { 0.0981130749, 0.2421734035, 0.1203335226 }, { 0.0509264208, 0.1932581216, 0.2022112608 } }, { { 0.1150581911, 0.0869472027, 0.5768067241 }, { -0.1486641169, -0.2692151368, 0.4597586095 }, { 0.3126341999, -0.1955542713, -0.12105418 } } }, { { { -0.2532705665, -0.0656394735, -0.0875231177 }, { -0.0210713204, 0.2777191401, -0.1264269352 }, { -0.1282009035, -0.1526522636, 0.1609314084 } }, { { -0.0003920599, 0.2058397532, 0.2306099832 }, { -0.1769430786, -0.0168629009, -0.1656500995 }, { -0.1786240786, 0.1528407931, 0.1303461194 } }, { { -0.1244482249, -0.1193709448, -0.3383340836 }, { 0.0811316296, -0.0936312824, -0.2051316351 }, { -0.1428024769, -0.1031253189, -0.3458050787 } }, { { -0.0319500715, 0.3183941245, 0.1989424676 }, { 0.218189016, 0.2888412774, 0.3450459242 }, { -0.1522420794, 0.2387141138, 0.1494708955 } }, { { -0.1078713685, -0.0329202786, -0.2044318318 }, { -0.2218415141, 0.1391347349, -0.0396441147 }, { -0.2053565979, -0.1730534136, -0.4246785343 } }, { { -0.2851153612, -0.1725753397, -0.2683128417 }, { -0.2317848057, -0.4205043912, -0.2264242619 }, { 0.0019897413, -0.1212346926, -0.5913965106 } }, { { 0.0217824318, -0.2587150931, -0.0959338471 }, { 0.1114251539, -0.2138498276, 0.17284365 }, { -0.0932427719, -0.0145891774, 0.1199249551 } }, { { -0.5383392572, -0.2304446697, -0.3510549068 }, { -0.310005486, 0.346037209, -0.4035395384 }, { -0.1190795451, -0.1448590159, -0.0459802039 } } }, { { { -0.2325932533, -0.1786754578, -0.1190603375 }, { 0.1950407773, 0.0310349911, 0.0066312007 }, { -0.1807262897, -0.2394287437, 0.1018427163 } }, { { -0.0585288815, -0.1240692288, 0.0199067798 }, { -0.0240327958, 0.0006467885, -0.0344002955 }, { -0.249792397, -0.1163756326, 0.0273720697 } }, { { 0.2126135677, -0.1906921268, -0.0833960921 }, { -0.1390444189, 0.0558984578, -0.1447678208 }, { -0.0634692386, -0.1528404504, -0.1807991862 } }, { { 0.1278214157, -0.1122305989, 0.2632141411 }, { -0.0381470323, 0.2248609066, 0.1624040455 }, { 0.1255781353, -0.0770782456, 0.0182011202 } }, { { -0.1877439022, -0.1676899344, -0.0120157804 }, { -0.0642628148, -0.0641319081, -0.0890417844 }, { -0.0494130254, -0.1178954467, -0.2225809842 } }, { { 0.1920517087, -0.3264698386, -0.5382704735 }, { 0.0226436909, -0.1653311104, -0.2361996323 }, { 0.1760611683, -0.3784860671, -0.2066325843 } }, { { -0.0757319629, -0.0253486652, 0.1972365677 }, { -0.2642994225, -0.0939300284, -0.2542665601 }, { -0.0525632761, 0.2630314827, 0.0543806702 } }, { { -0.2628810704, 0.1064012051, -0.0390443653 }, { -0.1398586184, 0.2083496898, 0.1358079016 }, { -0.2353922129, 0.0340224765, 0.0111023579 } } } };

const weight_t conv3_bias[16] = { 1.587618351, 1.7873324156, 2.1616508961, -2.6872491837, 1.250742197, -2.2941617966, 1.9820885658, -1.642018199, -2.7646801472, -1.4455260038, -2.6324722767, -2.3620648384, -1.7039197683, 1.7335577011, 2.1926019192, 1.6707201004 };

const weight_t fc_weight[2][16] = { { 0.2556808591, 0.3529171944, 0.0993427783, -0.4381960034, 0.6776545048, -0.5504945517, 0.1819333285, -0.2447075844, -0.8965415955, -0.8536689281, -0.3233973384, -0.6753272414, -0.4032861888, 0.359846741, 0.0028637843, 0.6389079094 }, { -0.3141907454, -0.3554412425, -0.3569915593, 0.4057241082, -0.5429509282, 0.450001061, -0.4708839357, 0.7719962001, 0.322945416, 0.4476829767, 0.6774500608, 0.4685151577, 0.7717559934, -0.342898488, -0.4625242352, -0.350199759 } };

const weight_t fc_bias[2] = { 0.0807789713, -0.0807789862 };

const norm_param_t global_mean[6] = { 1.8e-09, 6.2e-09, 1e-10, 0.0046821683, -0.0039456669, -0.0007365014 };

const norm_param_t global_std[6] = { 4.93448e-05, 4.92055e-05, 4.91397e-05, 5.9490829625, 5.9489928607, 5.9483427344 };
